<?xml version="1.0"?>
<opencv_storage>
<opencv_ml_knn>
  <format>3</format>
  <is_classifier>1</is_classifier>
  <default_k>10</default_k>
  <samples type_id="opencv-matrix">
    <rows>47</rows>
    <cols>100</cols>
    <dt>f</dt>
    <data>
      255. 255. 255. 255. 255. 255. 255. 255. 255. 255. 0. 0. 0. 0. 0.
      0. 0. 0. 255. 45. 0. 0. 0. 0. 0. 0. 7. 255. 197. 0. 0. 0. 0. 0. 0.
      0. 255. 255. 0. 0. 0. 0. 0. 0. 0. 179. 255. 0. 0. 0. 0. 0. 0. 0.
      58. 255. 58. 0. 0. 0. 0. 0. 0. 0. 255. 210. 0. 0. 0. 0. 0. 0. 0.
      231. 255. 0. 0. 0. 0. 0. 0. 0. 128. 255. 0. 0. 0. 0. 0. 0. 0. 26.
      255. 255. 0. 0. 0. 0. 0. 0. 0. 255. 255. 255. 255. 255. 255. 255.
      255. 133. 0. 255. 0. 0. 0. 0. 0. 0. 0. 0. 0. 255. 0. 0. 0. 0. 0.
      0. 0. 0. 179. 236. 0. 173. 191. 191. 191. 0. 0. 0. 179. 255. 255.
      191. 0. 0. 191. 255. 255. 0. 198. 64. 0. 0. 0. 0. 0. 0. 255. 177.
      0. 0. 0. 0. 0. 0. 0. 0. 231. 255. 255. 229. 0. 0. 0. 0. 0. 0. 231.
      255. 134. 255. 160. 0. 0. 0. 7. 160. 255. 0. 0. 7. 255. 255. 255.
      255. 255. 160. 6. 0. 0. 0. 0. 0. 0. 131. 255. 255. 0. 0. 0. 0. 0.
      0. 125. 255. 14. 255. 0. 0. 0. 0. 0. 61. 255. 0. 14. 255. 0. 0. 0.
      0. 48. 255. 22. 0. 14. 255. 0. 0. 0. 36. 255. 12. 0. 0. 14. 255.
      0. 0. 0. 255. 191. 0. 0. 0. 14. 255. 0. 0. 227. 149. 0. 64. 64. 0.
      74. 255. 29. 54. 255. 255. 255. 255. 255. 255. 255. 255. 255. 225.
      0. 0. 0. 0. 0. 0. 14. 255. 0. 0. 0. 0. 0. 0. 0. 0. 255. 255. 0. 0.
      0. 0. 0. 0. 52. 103. 255. 255. 255. 255. 39. 191. 255. 255. 255.
      51. 0. 255. 255. 50. 255. 255. 191. 0. 0. 0. 0. 255. 255. 50. 0.
      0. 0. 0. 0. 0. 0. 255. 255. 50. 0. 0. 0. 0. 0. 0. 0. 255. 255. 50.
      0. 0. 0. 0. 0. 0. 0. 255. 255. 50. 0. 0. 0. 0. 0. 0. 0. 255. 255.
      50. 0. 0. 0. 0. 0. 0. 0. 255. 255. 50. 0. 0. 0. 0. 0. 0. 0. 255.
      255. 50. 0. 0. 0. 0. 0. 0. 39. 255. 255. 255. 0. 0. 78. 255. 255.
      255. 255. 59. 0. 0. 0. 255. 255. 18. 0. 0. 24. 255. 237. 0. 223.
      223. 0. 0. 0. 0. 0. 0. 255. 191. 255. 191. 0. 0. 0. 0. 0. 0. 191.
      255. 191. 236. 0. 0. 0. 0. 0. 0. 255. 255. 0. 255. 255. 78. 78.
      78. 211. 236. 0. 255. 0. 0. 18. 82. 255. 255. 24. 0. 191. 255. 96.
      128. 0. 0. 0. 0. 0. 0. 255. 191. 0. 255. 83. 0. 0. 0. 20. 255.
      236. 0. 0. 19. 210. 255. 255. 255. 255. 76. 0. 0. 0. 0. 78. 255.
      255. 255. 255. 78. 0. 0. 0. 255. 255. 18. 0. 0. 18. 255. 255. 0.
      191. 255. 0. 0. 0. 0. 0. 0. 255. 191. 0. 255. 83. 0. 0. 0. 0. 83.
      255. 0. 0. 19. 210. 255. 179. 179. 255. 210. 19. 0. 0. 255. 255.
      133. 0. 0. 133. 255. 255. 0. 249. 197. 0. 0. 0. 0. 0. 0. 197. 249.
      255. 191. 0. 0. 0. 0. 0. 0. 191. 255. 172. 255. 83. 0. 0. 0. 0.
      83. 255. 172. 0. 19. 255. 255. 255. 255. 255. 255. 19. 0. 0. 0. 0.
      255. 255. 255. 255. 211. 20. 0. 0. 64. 255. 24. 0. 0. 0. 82. 255.
      173. 0. 255. 64. 0. 0. 0. 0. 0. 191. 223. 191. 191. 0. 7. 26. 26.
      26. 0. 0. 0. 191. 191. 134. 255. 121. 76. 210. 255. 255. 0. 191.
      255. 64. 0. 0. 0. 0. 0. 236. 255. 191. 255. 0. 0. 0. 0. 0. 0. 0.
      255. 96. 255. 32. 0. 0. 0. 0. 0. 191. 255. 0. 236. 255. 20. 0. 0.
      0. 83. 255. 172. 0. 0. 57. 255. 255. 255. 255. 255. 19. 0. 0. 0.
      78. 255. 255. 255. 255. 78. 0. 0. 0. 255. 255. 18. 0. 0. 18. 255.
      255. 0. 191. 255. 0. 0. 0. 0. 0. 64. 255. 0. 0. 0. 0. 0. 0. 0. 0.
      83. 255. 0. 0. 0. 0. 179. 179. 179. 255. 210. 0. 0. 0. 0. 0. 177.
      44. 0. 177. 255. 255. 0. 0. 0. 0. 0. 0. 0. 0. 0. 255. 191. 223.
      223. 0. 0. 0. 0. 0. 0. 191. 223. 172. 255. 83. 0. 0. 0. 0. 83.
      255. 0. 0. 19. 210. 255. 255. 255. 255. 210. 19. 0. 0. 8. 167.
      255. 255. 255. 255. 39. 0. 0. 162. 255. 140. 2. 0. 0. 47. 255.
      233. 0. 255. 229. 0. 0. 0. 0. 0. 128. 255. 0. 0. 0. 0. 0. 0. 0. 0.
      128. 255. 0. 0. 0. 0. 0. 0. 0. 26. 255. 93. 0. 0. 0. 0. 0. 0. 202.
      255. 89. 0. 0. 0. 0. 0. 0. 255. 255. 0. 0. 0. 0. 0. 0. 192. 255.
      89. 0. 0. 0. 0. 0. 18. 255. 242. 0. 0. 0. 0. 0. 0. 0. 255. 255.
      255. 255. 255. 255. 255. 255. 255. 255. 255. 255. 255. 255. 255.
      255. 255. 255. 255. 255. 0. 0. 0. 0. 0. 0. 0. 0. 255. 235. 0. 0.
      0. 0. 0. 0. 0. 255. 255. 0. 0. 0. 0. 0. 0. 0. 173. 255. 83. 0. 0.
      0. 0. 0. 0. 128. 255. 128. 0. 0. 0. 0. 0. 0. 71. 255. 185. 0. 0.
      0. 0. 0. 0. 0. 255. 255. 0. 0. 0. 0. 0. 0. 0. 223. 255. 32. 0. 0.
      0. 0. 0. 0. 128. 255. 128. 0. 0. 0. 0. 0. 0. 128. 255. 134. 0. 0.
      6. 0. 0. 0. 0. 0. 14. 255. 255. 255. 255. 255. 11. 0. 0. 213. 255.
      0. 0. 0. 0. 215. 255. 151. 153. 255. 0. 0. 0. 0. 0. 0. 191. 191.
      153. 255. 0. 90. 157. 255. 122. 90. 0. 0. 255. 143. 255. 231. 139.
      139. 139. 255. 227. 0. 255. 255. 0. 0. 0. 0. 0. 0. 255. 209. 153.
      255. 0. 0. 0. 0. 0. 0. 122. 255. 153. 255. 0. 0. 0. 0. 0. 0. 255.
      255. 0. 213. 255. 173. 0. 0. 0. 217. 255. 23. 0. 0. 12. 255. 255.
      255. 255. 255. 10. 0. 0. 0. 255. 255. 255. 255. 255. 255. 0. 0. 0.
      255. 255. 0. 0. 0. 0. 255. 255. 0. 115. 255. 0. 0. 0. 0. 0. 0.
      255. 151. 0. 0. 0. 0. 0. 0. 0. 255. 255. 0. 0. 0. 0. 255. 255.
      255. 255. 255. 0. 0. 0. 0. 0. 114. 114. 0. 114. 255. 255. 0. 0. 0.
      0. 0. 0. 0. 0. 0. 255. 219. 230. 255. 0. 0. 0. 0. 0. 0. 255. 255.
      23. 255. 255. 0. 0. 0. 0. 217. 255. 151. 0. 0. 255. 255. 255. 255.
      255. 255. 10. 0. 0. 11. 255. 255. 255. 255. 255. 14. 0. 0. 153.
      255. 215. 0. 0. 0. 0. 255. 211. 0. 255. 204. 0. 0. 0. 0. 0. 0.
      255. 151. 255. 50. 0. 0. 0. 0. 0. 0. 255. 151. 209. 255. 0. 0. 0.
      0. 0. 116. 255. 199. 0. 227. 255. 141. 141. 141. 255. 114. 255.
      198. 0. 0. 0. 88. 88. 88. 17. 0. 255. 151. 230. 204. 0. 0. 0. 0.
      0. 0. 255. 38. 153. 255. 217. 0. 0. 0. 175. 255. 203. 0. 0. 10.
      255. 255. 255. 255. 255. 12. 0. 0. 0. 9. 255. 255. 255. 255. 255.
      195. 0. 0. 141. 255. 225. 0. 0. 0. 34. 255. 255. 0. 255. 255. 0.
      0. 0. 0. 0. 64. 255. 0. 0. 0. 0. 0. 0. 0. 0. 131. 255. 0. 0. 0. 0.
      0. 0. 0. 138. 255. 90. 0. 0. 0. 0. 0. 0. 255. 255. 86. 0. 0. 0. 0.
      0. 142. 255. 246. 0. 0. 0. 0. 0. 0. 191. 255. 73. 0. 0. 0. 0. 0.
      120. 242. 255. 0. 0. 0. 0. 0. 0. 0. 255. 255. 255. 255. 255. 255.
      255. 255. 255. 255. 0. 0. 0. 0. 13. 38. 255. 255. 255. 255. 40.
      106. 255. 255. 255. 193. 78. 255. 255. 24. 255. 255. 223. 57. 0.
      0. 78. 255. 255. 24. 0. 0. 0. 0. 0. 0. 78. 255. 255. 24. 0. 0. 0.
      0. 0. 0. 78. 255. 255. 24. 0. 0. 0. 0. 0. 0. 78. 255. 255. 24. 0.
      0. 0. 0. 0. 0. 78. 255. 255. 24. 0. 0. 0. 0. 0. 0. 78. 255. 255.
      24. 0. 0. 0. 0. 0. 0. 78. 255. 255. 221. 0. 0. 0. 0. 0. 0. 78.
      255. 255. 255. 0. 0. 0. 0. 13. 255. 255. 255. 255. 255. 26. 255.
      255. 255. 255. 193. 0. 128. 255. 255. 198. 255. 223. 57. 0. 0. 0.
      128. 255. 255. 0. 0. 0. 0. 0. 0. 0. 128. 255. 255. 0. 0. 0. 0. 0.
      0. 0. 128. 255. 255. 0. 0. 0. 0. 0. 0. 0. 128. 255. 255. 0. 0. 0.
      0. 0. 0. 0. 128. 255. 255. 0. 0. 0. 0. 0. 0. 0. 128. 255. 255. 0.
      0. 0. 0. 0. 0. 0. 128. 255. 255. 0. 0. 0. 0. 0. 0. 4. 134. 255.
      255. 0. 255. 255. 255. 255. 255. 255. 255. 255. 139. 0. 255. 197.
      0. 0. 0. 0. 0. 115. 0. 0. 255. 64. 0. 0. 0. 0. 0. 0. 0. 99. 255.
      19. 0. 179. 179. 179. 0. 0. 0. 141. 255. 255. 255. 35. 24. 255.
      255. 247. 0. 127. 229. 0. 0. 0. 0. 0. 0. 255. 255. 0. 0. 0. 0. 0.
      0. 0. 0. 90. 255. 255. 255. 0. 0. 0. 0. 0. 0. 173. 255. 42. 255.
      255. 27. 0. 0. 28. 255. 255. 42. 0. 0. 24. 255. 255. 255. 255.
      197. 0. 0. 255. 255. 255. 255. 255. 255. 255. 255. 255. 255. 0.
      61. 0. 0. 0. 0. 0. 20. 255. 139. 0. 0. 0. 0. 0. 0. 0. 255. 210. 0.
      0. 0. 0. 0. 0. 0. 191. 255. 0. 0. 0. 0. 0. 0. 0. 14. 255. 18. 0.
      0. 0. 0. 0. 0. 25. 255. 193. 0. 0. 0. 0. 0. 0. 0. 247. 241. 0. 0.
      0. 0. 0. 0. 0. 236. 255. 0. 0. 0. 0. 0. 0. 0. 191. 255. 12. 0. 0.
      0. 0. 0. 0. 0. 255. 58. 0. 0. 0. 0. 0. 0. 0. 17. 198. 255. 255.
      255. 255. 26. 0. 0. 43. 255. 197. 0. 0. 0. 28. 255. 193. 0. 255.
      255. 0. 0. 0. 0. 0. 64. 255. 0. 0. 0. 0. 0. 0. 0. 0. 198. 255. 0.
      0. 0. 0. 251. 231. 232. 255. 197. 0. 0. 0. 0. 0. 0. 0. 0. 36. 255.
      255. 14. 0. 0. 0. 0. 0. 0. 0. 0. 255. 255. 255. 172. 0. 0. 0. 0.
      0. 0. 255. 255. 141. 255. 198. 27. 0. 0. 28. 255. 255. 42. 0. 16.
      197. 255. 255. 255. 255. 24. 0. 0. 0. 0. 0. 0. 0. 38. 255. 255.
      255. 255. 4. 106. 255. 255. 255. 215. 215. 235. 255. 255. 255.
      255. 223. 57. 0. 0. 0. 128. 255. 255. 0. 0. 0. 0. 0. 0. 0. 128.
      255. 255. 0. 0. 0. 0. 0. 0. 0. 128. 255. 255. 0. 0. 0. 0. 0. 0. 0.
      128. 255. 255. 0. 0. 0. 0. 0. 0. 0. 128. 255. 255. 0. 0. 0. 0. 0.
      0. 0. 128. 255. 255. 0. 0. 0. 0. 0. 0. 0. 128. 255. 255. 0. 0. 0.
      0. 0. 0. 78. 255. 255. 255. 0. 9. 255. 255. 255. 255. 255. 195. 0.
      0. 141. 255. 225. 0. 0. 0. 34. 255. 255. 0. 227. 255. 0. 0. 0. 0.
      0. 64. 255. 0. 0. 0. 0. 0. 0. 0. 0. 255. 255. 0. 0. 0. 0. 255.
      255. 255. 255. 226. 0. 0. 0. 0. 0. 114. 114. 114. 136. 255. 215.
      0. 0. 0. 0. 0. 0. 0. 0. 0. 255. 215. 255. 213. 0. 0. 0. 0. 0. 0.
      255. 255. 158. 255. 217. 0. 0. 0. 0. 227. 255. 139. 0. 8. 255.
      255. 255. 255. 255. 194. 8. 0. 0. 0. 14. 255. 255. 255. 255. 255.
      11. 0. 0. 213. 255. 171. 0. 0. 0. 215. 255. 24. 153. 255. 0. 0. 0.
      0. 0. 0. 204. 113. 189. 255. 0. 18. 157. 255. 90. 0. 0. 0. 255.
      143. 255. 231. 139. 139. 139. 255. 227. 0. 255. 255. 0. 0. 0. 0.
      0. 0. 255. 209. 188. 255. 0. 0. 0. 0. 0. 0. 122. 255. 153. 255. 0.
      0. 0. 0. 0. 0. 255. 255. 0. 213. 255. 0. 0. 0. 0. 217. 255. 23. 0.
      0. 12. 255. 255. 255. 255. 255. 0. 0. 0. 0. 255. 255. 255. 255.
      255. 255. 0. 0. 24. 255. 255. 0. 0. 0. 0. 255. 255. 0. 179. 255.
      0. 0. 0. 0. 0. 0. 255. 151. 255. 255. 0. 0. 0. 0. 0. 0. 255. 255.
      153. 255. 0. 0. 0. 0. 0. 0. 255. 255. 0. 227. 255. 232. 141. 141.
      233. 255. 52. 255. 0. 0. 0. 88. 255. 155. 88. 0. 185. 255. 115.
      204. 0. 0. 0. 0. 0. 0. 255. 151. 23. 255. 255. 0. 0. 0. 0. 255.
      211. 0. 0. 0. 255. 255. 255. 255. 255. 12. 0. 0. 0. 0. 0. 1. 14.
      172. 255. 255. 255. 255. 6. 137. 255. 255. 241. 215. 10. 225. 255.
      38. 201. 255. 207. 0. 0. 0. 0. 255. 255. 92. 0. 0. 0. 0. 0. 0. 0.
      255. 255. 255. 0. 0. 0. 0. 0. 0. 0. 255. 255. 255. 0. 0. 0. 0. 0.
      0. 0. 255. 255. 255. 0. 0. 0. 0. 0. 0. 0. 255. 255. 255. 0. 0. 0.
      0. 0. 0. 0. 255. 255. 255. 0. 0. 0. 0. 0. 0. 0. 255. 255. 255. 0.
      0. 0. 0. 0. 0. 0. 255. 255. 255. 0. 0. 195. 255. 255. 255. 255.
      14. 0. 0. 22. 255. 255. 32. 0. 0. 34. 255. 255. 0. 255. 255. 48.
      0. 0. 0. 0. 64. 255. 139. 0. 0. 0. 0. 0. 0. 0. 64. 255. 90. 0. 0.
      0. 0. 0. 0. 18. 255. 214. 0. 0. 0. 0. 0. 0. 147. 255. 220. 0. 0.
      0. 0. 0. 0. 251. 255. 74. 0. 0. 0. 0. 0. 143. 255. 255. 0. 0. 0.
      0. 0. 0. 142. 255. 70. 0. 0. 0. 0. 0. 0. 250. 255. 255. 255. 255.
      255. 255. 255. 255. 255. 0. 17. 198. 255. 255. 255. 255. 26. 0. 0.
      141. 255. 197. 0. 0. 0. 28. 255. 193. 0. 255. 255. 0. 0. 0. 0. 0.
      64. 255. 0. 0. 0. 0. 0. 0. 0. 0. 198. 255. 0. 0. 0. 0. 251. 231.
      231. 255. 197. 0. 0. 0. 0. 0. 195. 0. 0. 229. 255. 255. 14. 0. 0.
      0. 0. 0. 0. 0. 0. 255. 255. 255. 172. 0. 0. 0. 0. 0. 0. 255. 255.
      175. 255. 198. 0. 0. 0. 28. 255. 255. 42. 0. 16. 197. 255. 255.
      255. 255. 24. 0. 0. 0. 255. 255. 255. 255. 255. 255. 255. 255. 14.
      43. 255. 64. 0. 0. 0. 0. 0. 115. 0. 141. 255. 32. 0. 0. 0. 0. 0.
      0. 0. 141. 255. 0. 152. 179. 179. 151. 0. 0. 0. 141. 255. 255.
      255. 24. 37. 255. 255. 165. 0. 229. 229. 0. 0. 0. 0. 0. 57. 255.
      139. 0. 0. 0. 0. 0. 0. 0. 0. 255. 255. 255. 172. 0. 0. 0. 0. 0. 0.
      255. 197. 141. 255. 198. 27. 0. 0. 28. 255. 255. 42. 0. 16. 197.
      255. 255. 255. 255. 24. 0. 0. 0. 11. 255. 255. 255. 255. 255. 14.
      0. 0. 153. 255. 215. 0. 0. 0. 0. 255. 211. 0. 255. 204. 0. 0. 0.
      0. 0. 0. 255. 151. 255. 50. 0. 0. 0. 0. 0. 0. 255. 151. 209. 255.
      0. 0. 0. 0. 0. 116. 255. 199. 0. 227. 255. 141. 141. 141. 255.
      255. 255. 255. 0. 0. 88. 88. 255. 88. 17. 0. 255. 151. 153. 204.
      0. 0. 0. 0. 0. 0. 255. 38. 153. 255. 217. 0. 0. 0. 175. 255. 203.
      0. 0. 10. 255. 255. 255. 255. 255. 12. 0. 0. 0. 0. 14. 255. 255.
      255. 255. 255. 9. 0. 0. 255. 255. 32. 0. 0. 0. 225. 255. 158. 141.
      255. 48. 0. 0. 0. 0. 0. 191. 226. 255. 88. 0. 77. 90. 246. 90. 68.
      0. 0. 255. 88. 220. 255. 139. 139. 157. 255. 255. 63. 255. 255.
      29. 0. 0. 0. 0. 0. 255. 255. 255. 255. 0. 0. 0. 0. 0. 0. 90. 255.
      170. 255. 0. 0. 0. 0. 0. 0. 90. 255. 0. 255. 255. 32. 0. 0. 0.
      227. 255. 139. 0. 0. 194. 255. 255. 255. 255. 255. 8. 0. 0. 0. 0.
      0. 0. 38. 255. 255. 255. 255. 4. 106. 255. 255. 255. 251. 215.
      235. 255. 255. 255. 255. 223. 57. 0. 0. 0. 128. 255. 255. 0. 0. 0.
      0. 0. 0. 0. 128. 255. 255. 0. 0. 0. 0. 0. 0. 0. 128. 255. 255. 0.
      0. 0. 0. 0. 0. 0. 128. 255. 255. 0. 0. 0. 0. 0. 0. 0. 128. 255.
      255. 0. 0. 0. 0. 0. 0. 0. 128. 255. 255. 0. 0. 0. 0. 0. 0. 0. 128.
      255. 255. 0. 0. 0. 0. 0. 0. 78. 255. 255. 255. 0. 0. 0. 0. 5. 172.
      255. 255. 255. 255. 6. 137. 255. 255. 255. 229. 10. 255. 255. 38.
      201. 255. 207. 181. 0. 0. 0. 255. 255. 255. 0. 0. 0. 0. 0. 0. 0.
      255. 255. 255. 0. 0. 0. 0. 0. 0. 0. 255. 255. 255. 0. 0. 0. 0. 0.
      0. 0. 255. 255. 255. 0. 0. 0. 0. 0. 0. 0. 255. 255. 255. 0. 0. 0.
      0. 0. 0. 0. 255. 255. 255. 0. 0. 0. 0. 0. 0. 0. 255. 255. 255. 0.
      0. 0. 0. 0. 0. 0. 255. 255. 255. 0. 255. 255. 255. 255. 255. 255.
      255. 255. 132. 22. 255. 64. 0. 0. 0. 0. 0. 0. 0. 141. 255. 48. 0.
      0. 0. 0. 0. 0. 0. 141. 255. 0. 90. 255. 255. 229. 68. 0. 0. 193.
      255. 255. 139. 7. 8. 157. 255. 255. 0. 63. 114. 0. 0. 0. 0. 0. 29.
      255. 139. 0. 0. 0. 0. 0. 0. 0. 0. 255. 255. 255. 255. 0. 0. 0. 0.
      0. 0. 255. 168. 141. 255. 227. 0. 0. 0. 34. 255. 255. 21. 0. 8.
      194. 255. 255. 255. 255. 12. 0. 0. 255. 255. 255. 255. 255. 255.
      255. 255. 255. 255. 0. 0. 0. 0. 0. 0. 0. 0. 255. 235. 0. 0. 0. 0.
      0. 0. 0. 255. 255. 0. 0. 0. 0. 0. 0. 0. 173. 255. 83. 0. 0. 0. 0.
      0. 0. 128. 255. 128. 0. 0. 0. 0. 0. 0. 71. 255. 185. 0. 0. 0. 0.
      0. 0. 0. 255. 255. 0. 0. 0. 0. 0. 0. 0. 223. 255. 0. 0. 0. 0. 0.
      0. 0. 236. 255. 19. 0. 0. 0. 0. 0. 0. 128. 255. 134. 0. 0. 0. 0.
      0. 0. 0. 0. 0. 0. 0. 52. 255. 255. 0. 0. 0. 0. 0. 0. 34. 249. 116.
      255. 0. 0. 0. 0. 0. 141. 255. 0. 116. 255. 0. 0. 0. 0. 64. 255.
      38. 0. 116. 255. 0. 0. 0. 0. 255. 114. 0. 0. 116. 255. 0. 0. 0.
      255. 86. 0. 0. 0. 116. 255. 0. 0. 225. 255. 0. 167. 167. 141. 116.
      255. 167. 167. 189. 255. 255. 255. 255. 64. 151. 255. 74. 188. 0.
      0. 0. 0. 0. 0. 116. 255. 0. 0. 0. 0. 0. 0. 0. 0. 116. 255. 0. 0.
      0. 0. 198. 255. 255. 255. 255. 26. 0. 0. 43. 255. 255. 26. 0. 0.
      28. 255. 255. 43. 141. 255. 0. 0. 0. 0. 0. 0. 255. 139. 141. 255.
      64. 0. 0. 0. 0. 64. 255. 139. 0. 16. 255. 255. 231. 231. 255. 197.
      16. 0. 14. 255. 236. 34. 0. 0. 36. 236. 255. 14. 255. 204. 0. 0.
      0. 0. 0. 0. 204. 255. 255. 88. 0. 0. 0. 0. 0. 0. 173. 255. 175.
      255. 198. 0. 0. 0. 0. 198. 255. 139. 0. 16. 197. 255. 255. 255.
      255. 197. 16. 0. 0. 0. 20. 255. 255. 255. 255. 198. 0. 0. 0. 194.
      255. 177. 0. 0. 28. 197. 255. 43. 141. 255. 32. 0. 0. 0. 0. 0.
      173. 255. 255. 138. 0. 0. 179. 179. 151. 0. 0. 0. 255. 88. 249.
      255. 255. 37. 255. 255. 247. 0. 255. 255. 57. 0. 0. 0. 0. 0. 255.
      255. 255. 255. 0. 0. 0. 0. 0. 0. 90. 255. 141. 255. 0. 0. 0. 0. 0.
      0. 173. 255. 0. 255. 255. 27. 0. 0. 28. 198. 255. 42. 0. 0. 24.
      255. 255. 255. 255. 197. 16. 0. 0. 0. 0. 0. 0. 10. 255. 255. 0. 0.
      0. 0. 0. 0. 78. 255. 219. 255. 0. 0. 0. 0. 0. 0. 255. 57. 26. 255.
      0. 0. 0. 0. 0. 255. 177. 0. 26. 255. 0. 0. 0. 0. 255. 255. 0. 0.
      26. 255. 0. 0. 0. 255. 185. 0. 0. 0. 26. 255. 0. 0. 179. 255. 0.
      0. 0. 0. 26. 255. 0. 0. 198. 255. 255. 255. 255. 255. 255. 255.
      255. 255. 0. 0. 0. 0. 0. 0. 26. 255. 0. 0. 0. 0. 0. 0. 0. 0. 255.
      255. 0. 0. 0. 0. 255. 255. 255. 255. 255. 255. 0. 0. 24. 255. 255.
      0. 0. 0. 0. 255. 255. 0. 179. 255. 0. 0. 0. 0. 0. 0. 255. 151.
      255. 255. 0. 0. 0. 0. 0. 0. 255. 255. 153. 255. 0. 0. 0. 0. 0. 0.
      255. 255. 0. 227. 255. 232. 141. 141. 233. 255. 52. 255. 0. 0. 0.
      88. 255. 155. 88. 0. 185. 255. 115. 204. 0. 0. 0. 0. 0. 0. 255.
      151. 23. 255. 255. 0. 0. 0. 0. 255. 211. 0. 0. 0. 255. 255. 255.
      255. 255. 255. 0. 0. 0. 0. 195. 255. 255. 255. 255. 255. 9. 0. 0.
      255. 255. 32. 0. 0. 0. 225. 255. 158. 141. 255. 48. 0. 0. 0. 0. 0.
      214. 226. 255. 88. 0. 77. 90. 246. 90. 68. 0. 0. 255. 88. 220.
      255. 139. 139. 157. 255. 255. 63. 255. 255. 29. 0. 0. 0. 0. 0.
      255. 255. 255. 255. 0. 0. 0. 0. 0. 0. 90. 255. 170. 255. 0. 0. 0.
      0. 0. 0. 90. 255. 0. 255. 255. 32. 0. 0. 0. 227. 255. 139. 0. 0.
      194. 255. 255. 255. 255. 255. 8. 0. 255. 255. 255. 255. 255. 255.
      255. 255. 255. 255. 0. 0. 0. 0. 0. 0. 0. 0. 255. 235. 0. 0. 0. 0.
      0. 0. 0. 160. 255. 0. 0. 0. 0. 0. 0. 0. 173. 255. 83. 0. 0. 0. 0.
      0. 0. 128. 255. 128. 0. 0. 0. 0. 0. 0. 71. 255. 185. 0. 0. 0. 0.
      0. 0. 0. 255. 255. 0. 0. 0. 0. 0. 0. 0. 223. 255. 32. 0. 0. 0. 0.
      0. 0. 128. 255. 128. 0. 0. 0. 0. 0. 0. 128. 255. 134. 0. 0. 0. 0.
      0. 0. 255. 255. 255. 255. 255. 255. 255. 255. 255. 255. 0. 0. 0.
      0. 0. 0. 0. 10. 255. 139. 0. 0. 0. 0. 0. 0. 10. 255. 233. 0. 0. 0.
      0. 0. 0. 0. 255. 255. 0. 0. 0. 0. 0. 0. 0. 124. 255. 104. 0. 0. 0.
      0. 0. 0. 0. 255. 96. 0. 0. 0. 0. 0. 0. 0. 251. 246. 0. 0. 0. 0. 0.
      0. 0. 217. 255. 0. 0. 0. 0. 0. 0. 0. 163. 255. 12. 0. 0. 0. 0. 0.
      0. 0. 255. 255. 0. 0. 0. 0. 0. 0. 0. 255. 255. 255. 255. 255. 255.
      255. 255. 139. 0. 255. 64. 0. 0. 0. 0. 0. 0. 0. 0. 255. 64. 0. 0.
      0. 0. 0. 0. 0. 141. 255. 0. 77. 255. 255. 255. 68. 0. 0. 141. 255.
      255. 156. 139. 8. 139. 255. 255. 63. 63. 114. 0. 0. 0. 0. 0. 0.
      255. 255. 0. 0. 0. 0. 0. 0. 0. 0. 90. 255. 255. 255. 0. 0. 0. 0.
      0. 0. 214. 255. 21. 255. 255. 32. 0. 0. 34. 227. 255. 21. 0. 0.
      194. 255. 255. 255. 255. 194. 0. 0. 0. 0. 26. 255. 255. 255. 255.
      26. 0. 0. 0. 255. 255. 141. 0. 0. 142. 255. 219. 0. 153. 255. 0.
      0. 0. 0. 0. 0. 255. 151. 255. 255. 0. 0. 0. 0. 0. 0. 255. 255.
      153. 255. 0. 0. 0. 0. 0. 0. 255. 255. 0. 184. 255. 255. 26. 26.
      255. 255. 52. 255. 0. 0. 0. 177. 177. 177. 35. 0. 114. 255. 153.
      255. 0. 0. 0. 0. 0. 0. 255. 151. 46. 255. 255. 0. 0. 0. 144. 255.
      219. 0. 0. 0. 24. 255. 255. 255. 255. 24. 0. 0. 0. 0. 26. 255.
      255. 255. 255. 26. 0. 0. 0. 255. 255. 26. 0. 0. 28. 255. 255. 0.
      141. 255. 32. 0. 0. 0. 0. 64. 255. 139. 0. 0. 0. 0. 0. 0. 0. 64.
      255. 42. 0. 0. 0. 231. 231. 231. 235. 255. 16. 0. 0. 0. 0. 0. 0.
      0. 229. 236. 255. 14. 0. 0. 0. 0. 0. 0. 0. 0. 204. 255. 255. 255.
      0. 0. 0. 0. 0. 0. 90. 255. 141. 255. 198. 27. 0. 0. 0. 198. 255.
      139. 0. 16. 197. 255. 255. 255. 255. 197. 16. 0. 0. 0. 0. 0. 0.
      38. 255. 255. 255. 37. 4. 106. 255. 255. 255. 215. 227. 255. 255.
      24. 255. 255. 223. 57. 0. 0. 78. 255. 255. 82. 0. 0. 0. 0. 0. 0.
      78. 255. 255. 255. 0. 0. 0. 0. 0. 0. 78. 255. 255. 255. 0. 0. 0.
      0. 0. 0. 78. 255. 255. 255. 0. 0. 0. 0. 0. 0. 78. 255. 255. 255.
      0. 0. 0. 0. 0. 0. 78. 255. 255. 255. 0. 0. 0. 0. 0. 0. 78. 255.
      255. 255. 0. 0. 0. 0. 0. 0. 78. 255. 255. 255. 255. 255. 255. 255.
      255. 255. 255. 255. 255. 255. 0. 0. 0. 0. 0. 0. 0. 10. 255. 139.
      0. 0. 0. 0. 0. 0. 0. 255. 233. 0. 0. 0. 0. 0. 0. 0. 255. 255. 0.
      0. 0. 0. 0. 0. 0. 14. 255. 104. 0. 0. 0. 0. 0. 0. 0. 255. 215. 0.
      0. 0. 0. 0. 0. 0. 251. 246. 0. 0. 0. 0. 0. 0. 0. 217. 255. 0. 0.
      0. 0. 0. 0. 0. 163. 255. 48. 0. 0. 0. 0. 0. 0. 0. 255. 255. 0. 0.
      0. 0. 0. 0. 0. 0. 0. 0. 0. 10. 255. 255. 0. 0. 0. 0. 0. 0. 78.
      255. 219. 255. 0. 0. 0. 0. 0. 0. 255. 57. 26. 255. 0. 0. 0. 0. 0.
      255. 177. 0. 26. 255. 0. 0. 0. 0. 255. 255. 0. 0. 26. 255. 0. 0.
      0. 255. 185. 0. 0. 0. 26. 255. 0. 0. 117. 255. 0. 0. 0. 0. 26.
      255. 0. 0. 198. 255. 255. 255. 255. 255. 255. 255. 255. 197. 0. 0.
      0. 0. 0. 0. 26. 255. 0. 0. 0. 0. 0. 0. 0. 0. 255. 255. 0. 0.</data></samples>
  <responses type_id="opencv-matrix">
    <rows>47</rows>
    <cols>1</cols>
    <dt>f</dt>
    <data>
      7. 5. 4. 1. 9. 8. 6. 3. 2. 7. 6. 3. 9. 2. 1. 1. 5. 7. 3. 1. 3. 6.
      9. 1. 2. 3. 5. 9. 6. 1. 1. 5. 7. 4. 8. 6. 4. 9. 6. 7. 7. 5. 9. 3.
      1. 7. 4.</data></responses></opencv_ml_knn>
</opencv_storage>
